Language model created by QuickLM on Thu Oct 24 06:29:08 EDT 2019
Copyright (c) 1996-2010 Carnegie Mellon University and Alexander I. Rudnicky

The model is in standard ARPA format, designed by Doug Paul while he was at MITRE.

The code that was used to produce this language model is available in Open Source.
Please visit http://www.speech.cs.cmu.edu/tools/ for more information

The (fixed) discount mass is 0.5. The backoffs are computed using the ratio method.
This model based on a corpus of 32 sentences and 62 words

\data\
ngram 1=62
ngram 2=100
ngram 3=90

\1-grams:
-1.0027 </s> -0.3010
-1.0027 <s> -0.2511
-2.5079 A -0.2983
-2.2068 ARE -0.2970
-2.5079 AROUND -0.2556
-2.5079 AWAY -0.2556
-2.5079 BACKWARDS -0.2556
-2.2068 BATTERY -0.2983
-2.5079 BE -0.2997
-2.5079 CHICKEN -0.2997
-2.5079 COME -0.2997
-2.5079 CORRIDOR -0.2556
-2.5079 CROSS -0.2929
-2.5079 DID -0.2929
-2.5079 DOING -0.2556
-2.5079 DOWN -0.2556
-2.5079 FORWARD -0.2556
-1.6628 GO -0.2915
-2.5079 HALF -0.2997
-1.8089 HEISENBERG -0.2434
-2.5079 HELLO -0.2942
-2.5079 HERE -0.2970
-2.5079 HEY -0.2942
-2.5079 HOME -0.2556
-2.2068 IS -0.2983
-2.5079 IT -0.2556
-2.5079 KITCHEN -0.2556
-2.2068 LEFT -0.2556
-2.5079 LEVEL -0.2556
-2.5079 LIVINGROOM -0.2556
-2.2068 METER -0.2983
-2.2068 METERS -0.2956
-1.9058 MOVE -0.2956
-2.5079 NAME -0.2556
-2.5079 OFF -0.2556
-2.5079 OFFICE -0.2556
-2.5079 ON -0.2556
-2.5079 ONE -0.2983
-2.5079 QUIET -0.2556
-2.2068 RIGHT -0.2556
-2.5079 ROAD -0.2556
-2.5079 ROBOT -0.2556
-2.5079 SHUT -0.2997
-2.5079 SLEEP -0.2556
-2.5079 STATE -0.2556
-2.2068 STOP -0.2541
-2.5079 STUPID -0.2997
-2.5079 TALKING -0.2556
-1.7297 THE -0.2929
-2.5079 THREE -0.2983
-2.5079 TIME -0.2983
-1.8089 TO -0.2915
-2.0307 TURN -0.2942
-2.5079 TWO -0.2983
-2.5079 UP -0.2556
-2.2068 VOICE -0.2983
-2.5079 WAKE -0.2997
-2.0307 WHAT -0.2942
-2.5079 WHERE -0.2983
-2.5079 WHY -0.2997
-2.0307 YOU -0.2526
-2.5079 YOUR -0.2997

\2-grams:
-1.5051 <s> BATTERY 0.0000
-1.8062 <s> BE 0.0000
-1.8062 <s> COME 0.0000
-1.0280 <s> GO -0.0580
-1.3291 <s> HEISENBERG 0.0000
-1.8062 <s> HELLO 0.0000
-1.8062 <s> HEY 0.0000
-1.2041 <s> MOVE 0.0000
-1.8062 <s> SHUT 0.0000
-1.5051 <s> STOP 0.0000
-1.3291 <s> TURN 0.0000
-1.5051 <s> VOICE 0.0000
-1.3291 <s> WHAT 0.0000
-1.8062 <s> WHERE 0.0000
-1.8062 <s> WHY 0.0000
-0.3010 A METER -0.1761
-0.3010 ARE YOU -0.1249
-0.3010 AROUND </s> -0.3010
-0.3010 AWAY </s> -0.3010
-0.3010 BACKWARDS </s> -0.3010
-0.6021 BATTERY LEVEL 0.0000
-0.6021 BATTERY STATE 0.0000
-0.3010 BE QUIET 0.0000
-0.3010 CHICKEN CROSS 0.0000
-0.3010 COME HERE 0.0000
-0.3010 CORRIDOR </s> -0.3010
-0.3010 CROSS THE -0.2632
-0.3010 DID THE -0.2632
-0.3010 DOING </s> -0.3010
-0.3010 DOWN </s> -0.3010
-0.3010 FORWARD </s> -0.3010
-1.1461 GO AWAY 0.0000
-1.1461 GO HOME 0.0000
-0.4472 GO TO 0.0000
-0.3010 HALF A 0.0000
-0.5229 HEISENBERG </s> -0.3010
-1.0000 HEISENBERG GO -0.2688
-1.0000 HEISENBERG WAKE 0.0000
-0.3010 HELLO HEISENBERG -0.1461
-0.3010 HERE YOU -0.2218
-0.3010 HEY HEISENBERG -0.1461
-0.3010 HOME </s> -0.3010
-0.6021 IS IT 0.0000
-0.6021 IS YOUR 0.0000
-0.3010 IT </s> -0.3010
-0.3010 KITCHEN </s> -0.3010
-0.3010 LEFT </s> -0.3010
-0.3010 LEVEL </s> -0.3010
-0.3010 LIVINGROOM </s> -0.3010
-0.6021 METER BACKWARDS 0.0000
-0.6021 METER FORWARD 0.0000
-0.6021 METERS LEFT 0.0000
-0.6021 METERS RIGHT 0.0000
-0.9031 MOVE HALF 0.0000
-0.9031 MOVE ONE 0.0000
-0.9031 MOVE THREE 0.0000
-0.9031 MOVE TWO 0.0000
-0.3010 NAME </s> -0.3010
-0.3010 OFF </s> -0.3010
-0.3010 OFFICE </s> -0.3010
-0.3010 ON </s> -0.3010
-0.3010 ONE METER -0.1761
-0.3010 QUIET </s> -0.3010
-0.3010 RIGHT </s> -0.3010
-0.3010 ROAD </s> -0.3010
-0.3010 ROBOT </s> -0.3010
-0.3010 SHUT DOWN 0.0000
-0.3010 SLEEP </s> -0.3010
-0.3010 STATE </s> -0.3010
-0.6021 STOP </s> -0.3010
-0.6021 STOP TALKING 0.0000
-0.3010 STUPID ROBOT 0.0000
-0.3010 TALKING </s> -0.3010
-1.0792 THE CHICKEN 0.0000
-1.0792 THE CORRIDOR 0.0000
-1.0792 THE KITCHEN 0.0000
-1.0792 THE LIVINGROOM 0.0000
-1.0792 THE OFFICE 0.0000
-1.0792 THE ROAD 0.0000
-0.3010 THREE METERS -0.1761
-0.3010 TIME IS -0.1761
-1.0000 TO SLEEP 0.0000
-0.3979 TO THE -0.1249
-0.7782 TURN AROUND 0.0000
-0.7782 TURN LEFT 0.0000
-0.7782 TURN RIGHT 0.0000
-0.3010 TWO METERS -0.1761
-0.3010 UP </s> -0.3010
-0.6021 VOICE OFF 0.0000
-0.6021 VOICE ON 0.0000
-0.3010 WAKE UP 0.0000
-0.7782 WHAT ARE 0.0000
-0.7782 WHAT IS -0.1761
-0.7782 WHAT TIME 0.0000
-0.3010 WHERE ARE 0.0000
-0.3010 WHY DID 0.0000
-0.7782 YOU </s> -0.3010
-0.7782 YOU DOING 0.0000
-0.7782 YOU STUPID 0.0000
-0.3010 YOUR NAME 0.0000

\3-grams:
-0.6021 <s> BATTERY LEVEL
-0.6021 <s> BATTERY STATE
-0.3010 <s> BE QUIET
-0.3010 <s> COME HERE
-1.0792 <s> GO AWAY
-0.3802 <s> GO TO
-0.7782 <s> HEISENBERG </s>
-0.7782 <s> HEISENBERG GO
-0.7782 <s> HEISENBERG WAKE
-0.3010 <s> HELLO HEISENBERG
-0.3010 <s> HEY HEISENBERG
-0.9031 <s> MOVE HALF
-0.9031 <s> MOVE ONE
-0.9031 <s> MOVE THREE
-0.9031 <s> MOVE TWO
-0.3010 <s> SHUT DOWN
-0.6021 <s> STOP </s>
-0.6021 <s> STOP TALKING
-0.7782 <s> TURN AROUND
-0.7782 <s> TURN LEFT
-0.7782 <s> TURN RIGHT
-0.6021 <s> VOICE OFF
-0.6021 <s> VOICE ON
-0.7782 <s> WHAT ARE
-0.7782 <s> WHAT IS
-0.7782 <s> WHAT TIME
-0.3010 <s> WHERE ARE
-0.3010 <s> WHY DID
-0.3010 A METER FORWARD
-0.6021 ARE YOU </s>
-0.6021 ARE YOU DOING
-0.3010 BATTERY LEVEL </s>
-0.3010 BATTERY STATE </s>
-0.3010 BE QUIET </s>
-0.3010 CHICKEN CROSS THE
-0.3010 COME HERE YOU
-0.3010 CROSS THE ROAD
-0.3010 DID THE CHICKEN
-0.3010 GO AWAY </s>
-0.3010 GO HOME </s>
-1.0000 GO TO SLEEP
-0.3979 GO TO THE
-0.3010 HALF A METER
-0.3010 HEISENBERG GO HOME
-0.3010 HEISENBERG WAKE UP
-0.3010 HELLO HEISENBERG </s>
-0.3010 HERE YOU STUPID
-0.3010 HEY HEISENBERG </s>
-0.3010 IS IT </s>
-0.3010 IS YOUR NAME
-0.3010 METER BACKWARDS </s>
-0.3010 METER FORWARD </s>
-0.3010 METERS LEFT </s>
-0.3010 METERS RIGHT </s>
-0.3010 MOVE HALF A
-0.3010 MOVE ONE METER
-0.3010 MOVE THREE METERS
-0.3010 MOVE TWO METERS
-0.3010 ONE METER BACKWARDS
-0.3010 SHUT DOWN </s>
-0.3010 STOP TALKING </s>
-0.3010 STUPID ROBOT </s>
-0.3010 THE CHICKEN CROSS
-0.3010 THE CORRIDOR </s>
-0.3010 THE KITCHEN </s>
-0.3010 THE LIVINGROOM </s>
-0.3010 THE OFFICE </s>
-0.3010 THE ROAD </s>
-0.3010 THREE METERS RIGHT
-0.3010 TIME IS IT
-0.3010 TO SLEEP </s>
-0.9031 TO THE CORRIDOR
-0.9031 TO THE KITCHEN
-0.9031 TO THE LIVINGROOM
-0.9031 TO THE OFFICE
-0.3010 TURN AROUND </s>
-0.3010 TURN LEFT </s>
-0.3010 TURN RIGHT </s>
-0.3010 TWO METERS LEFT
-0.3010 VOICE OFF </s>
-0.3010 VOICE ON </s>
-0.3010 WAKE UP </s>
-0.3010 WHAT ARE YOU
-0.3010 WHAT IS YOUR
-0.3010 WHAT TIME IS
-0.3010 WHERE ARE YOU
-0.3010 WHY DID THE
-0.3010 YOU DOING </s>
-0.3010 YOU STUPID ROBOT
-0.3010 YOUR NAME </s>

\end\
